{
  "version": "3.0",
  "accuracy": 0,
  "totalTrades": 0,
  "successfulTrades": 0,
  "winRate": 0,
  "lastTrained": null,
  "strategyPerformance": {
    "ttm_squeeze": {
      "trades": 0,
      "wins": 0,
      "winRate": 0,
      "avgReturn": 0
    },
    "options_flow": {
      "trades": 0,
      "wins": 0,
      "winRate": 0,
      "avgReturn": 0
    },
    "gamma_exposure": {
      "trades": 0,
      "wins": 0,
      "winRate": 0,
      "avgReturn": 0
    },
    "dark_pool": {
      "trades": 0,
      "wins": 0,
      "winRate": 0,
      "avgReturn": 0
    },
    "technical_analysis": {
      "trades": 0,
      "wins": 0,
      "winRate": 0,
      "avgReturn": 0
    },
    "unusual_activity": {
      "trades": 0,
      "wins": 0,
      "winRate": 0,
      "avgReturn": 0
    }
  },
  "strategyWeights": {
    "ttm_squeeze": 1,
    "options_flow": 1,
    "gamma_exposure": 1,
    "dark_pool": 1,
    "technical_analysis": 1,
    "unusual_activity": 1
  },
  "userPreferences": {
    "preferredStrategies": [],
    "preferredSectors": [
      "Financial",
      "Consumer",
      "Healthcare",
      "Technology",
      "Energy"
    ],
    "preferredPriceRanges": [],
    "preferredVolumes": [],
    "riskTolerance": "moderate"
  },
  "marketConditionPatterns": {
    "bullish": {
      "trades": 0,
      "wins": 0,
      "winRate": 0
    },
    "bearish": {
      "trades": 0,
      "wins": 0,
      "winRate": 0
    },
    "sideways": {
      "trades": 0,
      "wins": 0,
      "winRate": 0
    },
    "high_volatility": {
      "trades": 0,
      "wins": 0,
      "winRate": 0
    },
    "low_volatility": {
      "trades": 0,
      "wins": 0,
      "winRate": 0
    }
  },
  "neuralWeights": {
    "input_hidden": [
      [
        0.9907109651356989,
        -0.5653677024717574,
        -0.7379534459641457,
        -0.9360360819581359,
        0.280576119478527,
        0.16503721368540303,
        0.22387687332956396,
        0.3507396330715351
      ],
      [
        0.6997289451041091,
        -0.7950652993211977,
        -0.6853077598632491,
        -0.6067979334295299,
        0.12598956581416232,
        0.5695177117076304,
        -0.20777672749625387,
        0.8678286695765527
      ],
      [
        -0.43732839593106876,
        -0.7204624369362937,
        0.05461708166274093,
        -0.08418244934212193,
        -0.575607354206265,
        -0.8832289449873265,
        0.10806482048485799,
        0.8118008121895817
      ],
      [
        0.052323084843796774,
        0.059997535275617686,
        -0.10838307137609116,
        -0.5707760420708263,
        0.08006353577332836,
        -0.04752140757855994,
        0.6529505553437449,
        0.05295185441455308
      ],
      [
        0.5256158319081368,
        0.37549232464610904,
        -0.6085998403791599,
        -0.5343495071159472,
        0.6474372999371742,
        0.7619566999016776,
        0.841362439944298,
        0.29885331957066574
      ],
      [
        -0.38157415124575467,
        0.9353680897696641,
        0.38771224878431587,
        -0.6161443076829318,
        0.5967803717418882,
        -0.7001943931641774,
        0.6186447489780904,
        0.5548005535239211
      ],
      [
        0.7421478841670761,
        0.8424405922709872,
        -0.47198546794874074,
        0.5238591239809964,
        0.48578411220759987,
        0.8210808227120086,
        0.791621612752146,
        0.6769716394408345
      ],
      [
        -0.45184648980955533,
        -0.454467097898819,
        -0.08647096988209668,
        -0.12195724123311535,
        -0.8243102850967423,
        0.3243126418586284,
        -0.3528876480018015,
        0.47629100794767165
      ],
      [
        -0.173988454417648,
        -0.6539247101100218,
        -0.6880847494085915,
        0.7834710924949659,
        -0.7229600243063716,
        0.004129715009142387,
        -0.8311002939607026,
        -0.9357787099361543
      ],
      [
        -0.9661881681928053,
        -0.14556041247183815,
        -0.8403667235857517,
        0.8454319434521769,
        0.30237683554135897,
        -0.5305851785570885,
        0.5410989223872731,
        0.750988507146459
      ],
      [
        -0.4244502961762344,
        0.889661156033164,
        0.785764078552881,
        -0.024003259613161188,
        -0.3918512261843534,
        -0.9768759721809301,
        -0.22574134522932354,
        -0.5865580243815818
      ],
      [
        0.497289873973739,
        0.7285409775069289,
        -0.11131833199934116,
        -0.9017826020037267,
        0.7676855615047051,
        -0.3448463109761759,
        -0.0022387968731862884,
        -0.4479390580553386
      ],
      [
        -0.4339984791079532,
        0.8736941526235644,
        -0.28166151388232397,
        0.4896099665653275,
        0.33276160043382585,
        0.10865201971366689,
        0.7539600804391529,
        -0.48775120361499935
      ],
      [
        0.5735512752832732,
        0.5408790835671815,
        0.8754146065192239,
        0.9138187782884053,
        -0.3881792326949287,
        0.02800183858895089,
        -0.5416503032360853,
        -0.2855432310109509
      ],
      [
        0.020767662153290622,
        0.09448655486489166,
        -0.37453714129678906,
        -0.5187051579833937,
        -0.028626186998855108,
        -0.28444073130331793,
        0.482345963359319,
        -0.06115374152933839
      ]
    ],
    "hidden_output": [
      -0.37028322644090483,
      0.2528511368870352,
      -0.46186215789144436,
      -0.5037968501011179,
      0.5618478623536318,
      -0.9962408616469642,
      -0.8590462602617932,
      0.9931239908885163
    ],
    "bias_hidden": [
      0.7276339979980637,
      0.5348257778988645,
      -0.7743194050085376,
      0.8860764894513102,
      0.08433995326865906,
      0.16167734476301643,
      -0.7587738031470788,
      0.33225920874398707
    ],
    "bias_output": -0.01783566753082111
  }
}